digraph Tree {
node [shape=box] ;
0 [label="X[0] <= -0.9473\nimpurity = 0.4968\nsamples = 126\nvalue = [108, 92]"] ;
1 [label="impurity = 0.0\nsamples = 10\nvalue = [0, 18]"] ;
0 -> 1 [labeldistance=2.5, labelangle=45, headlabel="True"] ;
2 [label="X[0] <= 0.8933\nimpurity = 0.4826\nsamples = 116\nvalue = [108, 74]"] ;
0 -> 2 [labeldistance=2.5, labelangle=-45, headlabel="False"] ;
3 [label="X[1] <= -0.8539\nimpurity = 0.4607\nsamples = 105\nvalue = [105, 59]"] ;
2 -> 3 ;
4 [label="X[0] <= 0.0428\nimpurity = 0.0588\nsamples = 20\nvalue = [1, 32]"] ;
3 -> 4 ;
5 [label="X[0] <= 0.0295\nimpurity = 0.1327\nsamples = 10\nvalue = [1, 13]"] ;
4 -> 5 ;
6 [label="impurity = 0.0\nsamples = 9\nvalue = [0, 13]"] ;
5 -> 6 ;
7 [label="impurity = 0.0\nsamples = 1\nvalue = [1, 0]"] ;
5 -> 7 ;
8 [label="impurity = 0.0\nsamples = 10\nvalue = [0, 19]"] ;
4 -> 8 ;
9 [label="X[0] <= 0.6615\nimpurity = 0.3273\nsamples = 85\nvalue = [104, 27]"] ;
3 -> 9 ;
10 [label="X[1] <= 0.9207\nimpurity = 0.3652\nsamples = 69\nvalue = [79, 25]"] ;
9 -> 10 ;
11 [label="impurity = 0.0\nsamples = 51\nvalue = [79, 0]"] ;
10 -> 11 ;
12 [label="impurity = 0.0\nsamples = 18\nvalue = [0, 25]"] ;
10 -> 12 ;
13 [label="X[1] <= 0.7117\nimpurity = 0.1372\nsamples = 16\nvalue = [25, 2]"] ;
9 -> 13 ;
14 [label="impurity = 0.0\nsamples = 15\nvalue = [25, 0]"] ;
13 -> 14 ;
15 [label="impurity = 0.0\nsamples = 1\nvalue = [0, 2]"] ;
13 -> 15 ;
16 [label="X[1] <= -0.2607\nimpurity = 0.2778\nsamples = 11\nvalue = [3, 15]"] ;
2 -> 16 ;
17 [label="impurity = 0.0\nsamples = 6\nvalue = [0, 11]"] ;
16 -> 17 ;
18 [label="X[0] <= 0.9316\nimpurity = 0.4898\nsamples = 5\nvalue = [3, 4]"] ;
16 -> 18 ;
19 [label="impurity = 0.0\nsamples = 1\nvalue = [0, 2]"] ;
18 -> 19 ;
20 [label="X[1] <= 0.411\nimpurity = 0.48\nsamples = 4\nvalue = [3, 2]"] ;
18 -> 20 ;
21 [label="impurity = 0.0\nsamples = 2\nvalue = [3, 0]"] ;
20 -> 21 ;
22 [label="impurity = 0.0\nsamples = 2\nvalue = [0, 2]"] ;
20 -> 22 ;
}