digraph Tree {
node [shape=box] ;
0 [label="X[0] <= 0.9296\nimpurity = 0.4998\nsamples = 131\nvalue = [102, 98]"] ;
1 [label="X[1] <= 0.8872\nimpurity = 0.4952\nsamples = 119\nvalue = [101, 83]"] ;
0 -> 1 [labeldistance=2.5, labelangle=45, headlabel="True"] ;
2 [label="X[0] <= -0.9954\nimpurity = 0.4399\nsamples = 100\nvalue = [101, 49]"] ;
1 -> 2 ;
3 [label="impurity = 0.0\nsamples = 6\nvalue = [0, 8]"] ;
2 -> 3 ;
4 [label="X[0] <= 0.8933\nimpurity = 0.4107\nsamples = 94\nvalue = [101, 41]"] ;
2 -> 4 ;
5 [label="X[1] <= -0.8631\nimpurity = 0.4037\nsamples = 91\nvalue = [100, 39]"] ;
4 -> 5 ;
6 [label="X[1] <= -0.9446\nimpurity = 0.1761\nsamples = 26\nvalue = [4, 37]"] ;
5 -> 6 ;
7 [label="impurity = 0.0\nsamples = 22\nvalue = [0, 31]"] ;
6 -> 7 ;
8 [label="X[1] <= -0.8924\nimpurity = 0.48\nsamples = 4\nvalue = [4, 6]"] ;
6 -> 8 ;
9 [label="impurity = 0.0\nsamples = 1\nvalue = [4, 0]"] ;
8 -> 9 ;
10 [label="impurity = 0.0\nsamples = 3\nvalue = [0, 6]"] ;
8 -> 10 ;
11 [label="X[1] <= 0.6643\nimpurity = 0.04\nsamples = 65\nvalue = [96, 2]"] ;
5 -> 11 ;
12 [label="impurity = 0.0\nsamples = 60\nvalue = [90, 0]"] ;
11 -> 12 ;
13 [label="X[1] <= 0.783\nimpurity = 0.375\nsamples = 5\nvalue = [6, 2]"] ;
11 -> 13 ;
14 [label="impurity = 0.0\nsamples = 2\nvalue = [0, 2]"] ;
13 -> 14 ;
15 [label="impurity = 0.0\nsamples = 3\nvalue = [6, 0]"] ;
13 -> 15 ;
16 [label="X[0] <= 0.9118\nimpurity = 0.4444\nsamples = 3\nvalue = [1, 2]"] ;
4 -> 16 ;
17 [label="impurity = 0.0\nsamples = 2\nvalue = [0, 2]"] ;
16 -> 17 ;
18 [label="impurity = 0.0\nsamples = 1\nvalue = [1, 0]"] ;
16 -> 18 ;
19 [label="impurity = 0.0\nsamples = 19\nvalue = [0, 34]"] ;
1 -> 19 ;
20 [label="X[0] <= 0.976\nimpurity = 0.1172\nsamples = 12\nvalue = [1, 15]"] ;
0 -> 20 [labeldistance=2.5, labelangle=-45, headlabel="False"] ;
21 [label="X[0] <= 0.9571\nimpurity = 0.2449\nsamples = 5\nvalue = [1, 6]"] ;
20 -> 21 ;
22 [label="impurity = 0.0\nsamples = 4\nvalue = [0, 6]"] ;
21 -> 22 ;
23 [label="impurity = 0.0\nsamples = 1\nvalue = [1, 0]"] ;
21 -> 23 ;
24 [label="impurity = 0.0\nsamples = 7\nvalue = [0, 9]"] ;
20 -> 24 ;
}